FILEHEADER = {
  magic: lCRF
  size: 37804
  type: FOMC
  version: 100
  num_features: 0
  num_labels: 3
  num_attrs: 405
  off_features: 0x30
  off_labels: 0x25A8
  off_attrs: 0x2E1A
  off_labelrefs: 0x7F50
  off_attrrefs: 0x7F98
}

LABELS = {
      0: A
      1: S
      2: I
}

ATTRIBUTES = {
      0: bias
      1: postag=NNP
      2: word.isupper=False
      3: word.istitle=True
      4: BOS
      5: +1:word.lower=w/
      6: +1:postag[:2]=VB
      7: +1:word.istitle=False
      8: +1:word.isupper=False
      9: word.lower=w/
     10: word.istitle=False
     11: -1:postag=NNP
     12: -1:postag[:2]=NN
     13: -1:word.istitle=True
     14: -1:word.isupper=False
     15: +1:word.lower=special
     16: +1:postag=JJ
     17: +1:word.istitle=True
     18: word.lower=special
     19: postag=JJ
     20: -1:word.lower=w/
     21: -1:postag=VBD
     22: -1:postag[:2]=VB
     23: -1:word.istitle=False
     24: +1:word.lower=guests
     25: +1:postag[:2]=NN
     26: word.lower=guests
     27: postag=NNS
     28: -1:word.lower=special
     29: EOS
     30: +1:postag=NNP
     31: +1:word.lower=-
     32: +1:postag=:
     33: +1:postag[:2]=:
     34: word.lower=-
     35: postag=:
     36: -1:word.lower=-
     37: -1:postag=:
     38: -1:postag[:2]=:
     39: +1:word.lower=tour
     40: word.lower=tour
     41: +1:postag=CD
     42: +1:postag[:2]=CD
     43: postag=CD
     44: +1:postag=NN
     45: +1:word.lower=the
     46: +1:postag=DT
     47: +1:postag[:2]=DT
     48: word.lower=the
     49: postag=DT
     50: -1:word.lower=the
     51: -1:postag=DT
     52: -1:postag[:2]=DT
     53: +1:word.lower=band
     54: word.lower=band
     55: -1:word.lower=house
     56: +1:word.lower="ocotillo"
     57: -1:word.lower=band
     58: word.lower=album
     59: +1:word.lower=release
     60: word.lower=release
     61: -1:word.lower=album
     62: +1:word.lower=party
     63: word.lower=party
     64: -1:word.lower=release
     65: +1:word.lower=,
     66: +1:postag=,
     67: +1:postag[:2]=,
     68: word.lower=,
     69: postag=,
     70: -1:word.lower=,
     71: -1:postag=,
     72: -1:postag[:2]=,
     73: +1:postag=CC
     74: +1:postag[:2]=CC
     75: word.lower=&
     76: -1:word.lower=lukes
     77: +1:word.lower=emma
     78: word.lower=emma
     79: -1:postag=CC
     80: -1:postag[:2]=CC
     81: +1:word.lower=rose
     82: word.lower=rose
     83: -1:word.lower=emma
     84: -1:postag=VBP
     85: word.lower=flipturn
     86: postag=SYM
     87: +1:postag=IN
     88: +1:postag[:2]=IN
     89: -1:postag=IN
     90: -1:postag[:2]=IN
     91: +1:word.isupper=True
     92: -1:word.isupper=True
     93: +1:word.lower=at
     94: word.lower=at
     95: -1:postag=NNS
     96: word.lower=black
     97: -1:word.lower=black
     98: postag=VBG
     99: -1:postag=VBG
    100: word.lower=lvdy
    101: +1:word.lower=sculpture
    102: word.lower=sculpture
    103: +1:word.lower=park
    104: word.lower=park
    105: -1:word.lower=sculpture
    106: word.lower=by
    107: -1:word.lower=presented
    108: -1:postag=VBN
    109: -1:word.lower=by
    110: +1:word.lower=colorado
    111: word.lower=colorado
    112: +1:word.lower=sound
    113: -1:word.lower=colorado
    114: word.lower=*sat
    115: +1:word.lower=(
    116: +1:postag=(
    117: +1:postag[:2]=(
    118: word.lower=(
    119: postag=(
    120: word.lower=late
    121: -1:word.lower=(
    122: -1:postag=(
    123: -1:postag[:2]=(
    124: +1:word.lower=set
    125: word.lower=set
    126: +1:word.lower=)
    127: +1:postag=)
    128: +1:postag[:2]=)
    129: word.lower=)
    130: postag=)
    131: -1:word.lower=)
    132: -1:postag=)
    133: -1:postag[:2]=)
    134: word.lower=surprise
    135: +1:word.lower=secret
    136: word.lower=secret
    137: -1:word.lower=surprise
    138: +1:word.lower=guest
    139: word.lower=guest
    140: -1:word.lower=secret
    141: word.lower=two
    142: +1:word.lower=tracks
    143: word.lower=tracks
    144: -1:word.lower=two
    145: word.lower=patio
    146: -1:word.lower=flaherty
    147: +1:word.lower=jacob
    148: word.lower=moss
    149: -1:word.lower=jacob
    150: word.lower=resident
    151: +1:word.lower=host
    152: word.lower=host
    153: -1:word.lower=resident
    154: +1:word.lower=mikey
    155: word.lower=mikey
    156: -1:word.lower=host
    157: +1:word.lower=thunder
    158: word.lower=thunder
    159: -1:word.lower=mikey
    160: postag=VBZ
    161: word.lower=ag
    162: +1:word.lower=club
    163: word.lower=start
    164: +1:word.lower=making
    165: word.lower=making
    166: -1:word.lower=start
    167: +1:word.lower=sense
    168: word.lower=sense
    169: -1:word.lower=making
    170: word.lower=talking
    171: +1:word.lower=heads
    172: word.lower=tribute
    173: -1:word.lower=heads
    174: word.lower=summer
    175: -1:word.lower=1075
    176: +1:word.lower=jam:
    177: word.lower=jam:
    178: -1:word.lower=summer
    179: +1:word.lower=dababy
    180: word.lower=dababy
    181: -1:word.lower=jam:
    182: +1:word.lower=amphitheatre
    183: word.lower=amphitheatre
    184: word.lower=and
    185: -1:word.lower=and
    186: +1:postag=NNPS
    187: postag=NNPS
    188: word.lower=halchak
    189: -1:word.lower=dave
    190: word.lower=dual
    191: +1:word.lower=venue
    192: word.lower=venue
    193: -1:word.lower=dual
    194: word.lower=juice
    195: +1:word.lower=ft.
    196: word.lower=ft.
    197: word.lower=casey
    198: word.lower=cody
    199: word.lower=magic
    200: +1:word.lower=beans
    201: word.lower=beans
    202: -1:word.lower=magic
    203: +1:word.lower=+
    204: word.lower=+
    205: word.lower=patty
    206: -1:word.lower=+
    207: word.lower=tucker
    208: word.lower=cycles
    209: word.lower=deville
    210: -1:word.lower=mega
    211: -1:word.lower=cortese
    212: +1:word.lower=dance
    213: word.lower=dance
    214: +1:word.lower=cards
    215: word.lower=*fri
    216: -1:word.lower=benton
    217: +1:word.lower=reason
    218: +1:word.lower=on
    219: -1:word.lower=on
    220: +1:word.lower=rocks
    221: word.lower=rocks
    222: -1:word.lower=rocks
    223: word.lower=j.i.d
    224: -1:word.lower=lute
    225: +1:word.lower=omen
    226: +1:word.lower=red
    227: word.lower=red
    228: -1:word.lower=red
    229: word.lower=sam
    230: +1:word.lower=morrow
    231: word.lower=morrow
    232: -1:word.lower=sam
    233: word.lower=originals
    234: word.lower=tunes
    235: -1:word.lower=feat
    236: word.lower=unit
    237: -1:word.lower=st.
    238: word.lower=bbno$:
    239: +1:word.lower=eat
    240: -1:word.lower=ceo@business.net
    241: +1:word.lower=savagerealm
    242: word.lower=savagerealm
    243: word.lower=bass
    244: +1:word.lower=invasion
    245: -1:word.lower=bass
    246: +1:word.lower=night
    247: -1:word.lower=night
    248: +1:word.lower=ultrasloth
    249: word.lower=ultrasloth
    250: word.lower=grymetyme
    251: -1:word.lower=grymetyme
    252: word.lower=ferreck
    253: +1:word.lower=dawn
    254: word.lower=dawn
    255: -1:word.lower=ferreck
    256: word.lower=defected
    257: +1:word.lower=v
    258: word.lower=v
    259: +1:word.lower=neck
    260: word.lower=dirtybird
    261: -1:word.lower=dirtybird
    262: +1:word.lower=repopulate
    263: word.lower=mars
    264: -1:word.lower=repopulate
    265: word.lower=afterhours
    266: +1:word.lower=anonymous
    267: word.lower=anonymous
    268: -1:word.lower=afterhours
    269: -1:word.lower=liquid
    270: +1:word.lower=kill
    271: word.lower=of
    272: -1:word.lower=queens
    273: +1:word.lower=basscapital
    274: word.lower=vol.
    275: +1:word.lower=1
    276: word.lower=weird
    277: +1:word.lower=waifu
    278: word.lower=kayyspray
    279: word.lower=ryan
    280: +1:word.lower=caraveo:
    281: word.lower=caraveo:
    282: -1:word.lower=ryan
    283: -1:word.lower=caraveo:
    284: +1:word.lower=northend
    285: word.lower=kendall
    286: +1:word.lower=street
    287: -1:word.lower=pixie
    288: word.lower=///
    289: +1:word.lower=ghost
    290: word.lower=ghost
    291: -1:word.lower=///
    292: +1:word.lower=town
    293: word.lower=town
    294: -1:word.lower=ghost
    295: +1:word.lower=drifters
    296: word.lower=drifters
    297: -1:word.lower=town
    298: +1:word.lower=pass
    299: word.lower=pass
    300: word.lower=invasion:
    301: -1:word.lower=invasion:
    302: word.lower=bill
    303: -1:word.lower=kll
    304: word.lower=more
    305: word.lower=sat
    306: -1:word.lower=ballyhoo!
    307: +1:word.lower=tunnel
    308: word.lower=tunnel
    309: +1:word.lower=vision
    310: word.lower=vision
    311: -1:word.lower=tunnel
    312: word.lower=space
    313: +1:word.lower=bacon
    314: word.lower=specific
    315: -1:word.lower=mr.
    316: -1:word.lower=specific
    317: word.lower=alo
    318: -1:word.lower=envy
    319: -1:word.lower=alo
    320: word.lower=patio:
    321: +1:word.lower=jon
    322: word.lower=jon
    323: -1:word.lower=patio:
    324: +1:word.lower=stickley
    325: -1:word.lower=cooney
    326: +1:word.lower=patrick
    327: word.lower=.atm
    328: word.lower=mau5trap
    329: word.lower=mahesh
    330: -1:word.lower=otis
    331: +1:word.lower=hyp3
    332: word.lower=rocks:
    333: +1:word.lower=flatbush
    334: word.lower=flatbush
    335: -1:word.lower=rocks:
    336: +1:word.lower=zombies
    337: word.lower=zombies
    338: -1:word.lower=flatbush
    339: +1:word.lower=freek
    340: word.lower=freek
    341: -1:word.lower=zombies
    342: +1:word.lower=show
    343: word.lower=show
    344: -1:word.lower=freek
    345: +1:word.lower=with
    346: word.lower=with
    347: -1:word.lower=show
    348: +1:word.lower=earl
    349: word.lower=earl
    350: -1:word.lower=with
    351: +1:word.lower=sweatshirt
    352: word.lower=sweatshirt
    353: -1:word.lower=earl
    354: word.lower=2-day
    355: -1:word.lower=2-day
    356: +1:word.lower=pass:
    357: word.lower=pass:
    358: +1:word.lower=space
    359: -1:word.lower=pass:
    360: word.lower=rado
    361: word.lower=friday
    362: word.lower=saturday
    363: word.lower=$even
    364: -1:word.lower=forty
    365: word.lower=delight
    366: -1:word.lower=dreamers
    367: word.lower=ballroom
    368: -1:word.lower=recess
    369: +1:word.lower=friends
    370: word.lower=other
    371: +1:word.lower=side
    372: +1:word.lower=denver
    373: word.lower=denver
    374: +1:word.lower=pancakes
    375: word.lower=pancakes
    376: -1:word.lower=denver
    377: word.lower=booze
    378: +1:word.lower=art
    379: word.lower=boombox
    380: +1:word.lower=feat.
    381: word.lower=feat.
    382: -1:word.lower=boombox
    383: +1:word.lower=backbeat
    384: word.lower=backbeat
    385: -1:word.lower=feat.
    386: +1:word.lower=brass
    387: word.lower=mark
    388: +1:word.lower=farina
    389: word.lower=farina
    390: -1:word.lower=mark
    391: -1:word.lower=ethno
    392: -1:word.lower=ramakhandra
    393: +1:word.lower=adam
    394: -1:word.lower=conrank
    395: +1:word.lower=hydraulix
    396: -1:word.lower=man
    397: +1:word.lower=redman
    398: -1:word.lower=uglies
    399: +1:word.lower=tropidelic
    400: word.lower=codes
    401: +1:word.lower=/
    402: word.lower=/
    403: -1:word.lower=/
    404: word.lower=lucati
}

TRANSITIONS = {
  (1) A --> A: 0.867975
  (1) A --> S: 0.245709
  (1) A --> I: -1.541713
  (1) S --> A: 0.099909
  (1) S --> S: -0.912553
  (1) I --> A: -2.074120
  (1) I --> I: 1.282244
}

STATE_FEATURES = {
  (0) bias --> A: 0.325826
  (0) bias --> S: -2.787825
  (0) bias --> I: 0.639991
  (0) postag=NNP --> A: 1.650823
  (0) postag=NNP --> S: -0.105955
  (0) word.isupper=False --> A: 0.154122
  (0) word.isupper=False --> S: -0.211341
  (0) word.isupper=False --> I: 0.420270
  (0) word.istitle=True --> A: 1.974159
  (0) word.istitle=True --> I: 0.458311
  (0) BOS --> A: 0.466293
  (0) +1:word.lower=w/ --> A: 1.062352
  (0) +1:word.lower=w/ --> I: -0.396995
  (0) +1:postag[:2]=VB --> I: 0.000426
  (0) +1:word.istitle=False --> A: 0.288689
  (0) +1:word.istitle=False --> I: -0.089001
  (0) +1:word.isupper=False --> A: 0.238501
  (0) +1:word.isupper=False --> I: 0.040799
  (0) word.lower=w/ --> S: 7.812021
  (0) word.istitle=False --> A: -0.996362
  (0) word.istitle=False --> S: 1.414988
  (0) -1:postag=NNP --> A: -0.076810
  (0) -1:postag[:2]=NN --> A: -0.103698
  (0) -1:postag[:2]=NN --> I: 0.014279
  (0) -1:word.istitle=True --> A: -0.688172
  (0) -1:word.istitle=True --> S: 0.000004
  (0) -1:word.istitle=True --> I: 0.391023
  (0) -1:word.isupper=False --> A: 0.249261
  (0) -1:word.isupper=False --> I: -0.298117
  (0) +1:word.lower=special --> S: 1.663821
  (0) +1:postag=JJ --> S: 0.133414
  (0) +1:word.istitle=True --> A: -0.310303
  (0) +1:word.istitle=True --> I: 0.439180
  (0) word.lower=special --> A: -1.147124
  (0) word.lower=special --> I: 1.333414
  (0) postag=JJ --> I: 0.000080
  (0) -1:word.lower=w/ --> A: 0.811146
  (0) -1:word.lower=w/ --> I: -0.133120
  (0) -1:postag=VBD --> A: -0.234939
  (0) -1:postag=VBD --> I: 0.243908
  (0) -1:postag[:2]=VB --> A: 0.014865
  (0) -1:word.istitle=False --> A: 0.193118
  (0) +1:word.lower=guests --> A: -1.147124
  (0) +1:word.lower=guests --> I: 1.333414
  (0) +1:postag[:2]=NN --> A: 0.081478
  (0) +1:postag[:2]=NN --> I: -0.036899
  (0) word.lower=guests --> A: -0.620757
  (0) word.lower=guests --> I: 0.955447
  (0) postag=NNS --> A: 1.353137
  (0) postag=NNS --> I: -0.550093
  (0) -1:word.lower=special --> A: -0.620757
  (0) -1:word.lower=special --> I: 0.955447
  (0) EOS --> A: 0.032209
  (0) +1:postag=NNP --> A: -0.422073
  (0) +1:postag=NNP --> I: 0.108655
  (0) +1:word.lower=- --> A: 0.555535
  (0) +1:word.lower=- --> I: -0.100845
  (0) +1:postag=: --> A: 0.555535
  (0) +1:postag=: --> I: -0.100845
  (0) +1:postag[:2]=: --> A: 0.555535
  (0) +1:postag[:2]=: --> I: -0.100845
  (0) word.lower=- --> I: 1.350173
  (0) postag=: --> I: 1.350173
  (0) -1:word.lower=- --> A: -0.041387
  (0) -1:word.lower=- --> I: 0.259688
  (0) -1:postag=: --> A: -0.041387
  (0) -1:postag=: --> I: 0.259688
  (0) -1:postag[:2]=: --> A: -0.041387
  (0) -1:postag[:2]=: --> I: 0.259688
  (0) +1:word.lower=tour --> I: 1.667679
  (0) word.lower=tour --> I: 4.506401
  (0) +1:postag=CD --> A: -0.959933
  (0) +1:postag=CD --> S: 0.025832
  (0) +1:postag[:2]=CD --> A: -0.959933
  (0) +1:postag[:2]=CD --> S: 0.025832
  (0) postag=CD --> A: -1.320799
  (0) postag=CD --> I: 2.741718
  (0) +1:postag=NN --> A: 0.408183
  (0) +1:word.lower=the --> A: -0.149908
  (0) +1:word.lower=the --> I: 0.693120
  (0) +1:postag=DT --> A: -0.136389
  (0) +1:postag=DT --> I: 0.472614
  (0) +1:postag[:2]=DT --> A: -0.136389
  (0) +1:postag[:2]=DT --> I: 0.472614
  (0) word.lower=the --> A: 1.054180
  (0) postag=DT --> A: 1.260332
  (0) postag=DT --> I: -0.244254
  (0) -1:word.lower=the --> A: -0.144262
  (0) -1:word.lower=the --> I: 0.315894
  (0) -1:postag=DT --> A: -0.123222
  (0) -1:postag=DT --> I: 0.288104
  (0) -1:postag[:2]=DT --> A: -0.123222
  (0) -1:postag[:2]=DT --> I: 0.288104
  (0) +1:word.lower=band --> A: 0.402674
  (0) word.lower=band --> A: 2.188290
  (0) -1:word.lower=house --> A: 0.194594
  (0) +1:word.lower="ocotillo" --> A: 0.194594
  (0) -1:word.lower=band --> I: 3.181508
  (0) word.lower=album --> I: 1.533776
  (0) +1:word.lower=release --> I: 1.533776
  (0) word.lower=release --> I: 0.543465
  (0) -1:word.lower=album --> I: 0.543465
  (0) +1:word.lower=party --> I: 0.543465
  (0) word.lower=party --> I: 2.243763
  (0) -1:word.lower=release --> I: 2.243763
  (0) +1:word.lower=, --> A: 0.182520
  (0) +1:postag=, --> A: 0.182520
  (0) +1:postag[:2]=, --> A: 0.182520
  (0) word.lower=, --> S: 4.650828
  (0) postag=, --> S: 4.650828
  (0) -1:word.lower=, --> A: 0.433673
  (0) -1:postag=, --> A: 0.433673
  (0) -1:postag[:2]=, --> A: 0.433673
  (0) +1:postag=CC --> A: 0.550072
  (0) +1:postag=CC --> I: -0.245227
  (0) +1:postag[:2]=CC --> A: 0.550072
  (0) +1:postag[:2]=CC --> I: -0.245227
  (0) word.lower=& --> A: 0.924309
  (0) word.lower=& --> I: 1.925684
  (0) -1:word.lower=lukes --> I: 1.447825
  (0) +1:word.lower=emma --> I: 1.447825
  (0) word.lower=emma --> A: 0.242638
  (0) -1:postag=CC --> A: 0.605828
  (0) -1:postag[:2]=CC --> A: 0.605828
  (0) +1:word.lower=rose --> A: 0.242638
  (0) word.lower=rose --> A: 0.000025
  (0) -1:word.lower=emma --> A: 0.000025
  (0) -1:postag=VBP --> A: 0.643643
  (0) -1:postag=VBP --> I: -0.862658
  (0) word.lower=flipturn --> A: 1.621009
  (0) postag=SYM --> A: 1.621009
  (0) +1:postag=IN --> A: -0.153380
  (0) +1:postag=IN --> I: 0.415783
  (0) +1:postag[:2]=IN --> A: -0.153380
  (0) +1:postag[:2]=IN --> I: 0.415783
  (0) -1:postag=IN --> I: 0.389961
  (0) -1:postag[:2]=IN --> I: 0.389961
  (0) +1:word.isupper=True --> A: -0.419797
  (0) +1:word.isupper=True --> S: 0.045179
  (0) -1:word.isupper=True --> A: -0.580227
  (0) -1:word.isupper=True --> I: 0.265090
  (0) +1:word.lower=at --> A: 1.483496
  (0) +1:word.lower=at --> I: -1.176225
  (0) word.lower=at --> I: 1.043674
  (0) -1:postag=NNS --> A: 0.074897
  (0) word.lower=black --> I: 2.255103
  (0) -1:word.lower=black --> I: 0.932663
  (0) postag=VBG --> A: 1.480503
  (0) -1:postag=VBG --> A: 0.070850
  (0) word.lower=lvdy --> A: 0.601313
  (0) +1:word.lower=sculpture --> A: 1.471478
  (0) +1:word.lower=sculpture --> I: -0.034191
  (0) word.lower=sculpture --> I: 1.266335
  (0) +1:word.lower=park --> I: 1.266335
  (0) word.lower=park --> I: 0.560883
  (0) -1:word.lower=sculpture --> I: 0.560883
  (0) word.lower=by --> I: 0.477849
  (0) -1:word.lower=presented --> I: 0.477849
  (0) -1:postag=VBN --> I: 0.477849
  (0) -1:word.lower=by --> I: 0.355923
  (0) +1:word.lower=colorado --> A: 3.331174
  (0) +1:word.lower=colorado --> I: -2.687799
  (0) word.lower=colorado --> I: 2.754372
  (0) +1:word.lower=sound --> A: -0.002533
  (0) +1:word.lower=sound --> I: 0.037161
  (0) -1:word.lower=colorado --> I: 1.779343
  (0) word.lower=*sat --> I: 3.174693
  (0) +1:word.lower=( --> A: -0.000004
  (0) +1:word.lower=( --> I: 0.030111
  (0) +1:postag=( --> A: -0.000004
  (0) +1:postag=( --> I: 0.030111
  (0) +1:postag[:2]=( --> A: -0.000004
  (0) +1:postag[:2]=( --> I: 0.030111
  (0) word.lower=( --> I: 2.462242
  (0) postag=( --> I: 2.462242
  (0) word.lower=late --> I: 0.656921
  (0) -1:word.lower=( --> S: 0.001838
  (0) -1:word.lower=( --> I: -0.346292
  (0) -1:postag=( --> S: 0.001838
  (0) -1:postag=( --> I: -0.346292
  (0) -1:postag[:2]=( --> S: 0.001838
  (0) -1:postag[:2]=( --> I: -0.346292
  (0) +1:word.lower=set --> S: 2.869819
  (0) word.lower=set --> I: 2.057757
  (0) +1:word.lower=) --> A: 0.260447
  (0) +1:postag=) --> A: 0.260447
  (0) +1:postag[:2]=) --> A: 0.260447
  (0) word.lower=) --> I: 3.068349
  (0) postag=) --> I: 3.068349
  (0) -1:word.lower=) --> S: 0.504021
  (0) -1:postag=) --> S: 0.504021
  (0) -1:postag[:2]=) --> S: 0.504021
  (0) word.lower=surprise --> I: 2.020293
  (0) +1:word.lower=secret --> I: 2.020293
  (0) word.lower=secret --> I: 0.560302
  (0) -1:word.lower=surprise --> I: 0.560302
  (0) +1:word.lower=guest --> I: 0.560302
  (0) word.lower=guest --> I: 1.096120
  (0) -1:word.lower=secret --> I: 1.096120
  (0) word.lower=two --> A: 2.184323
  (0) +1:word.lower=tracks --> A: 2.184323
  (0) word.lower=tracks --> A: 1.167999
  (0) -1:word.lower=two --> A: 1.167999
  (0) word.lower=patio --> S: 2.826898
  (0) word.lower=patio --> I: 1.533470
  (0) -1:word.lower=flaherty --> A: 0.796290
  (0) +1:word.lower=jacob --> A: 0.941222
  (0) word.lower=moss --> A: 0.338385
  (0) -1:word.lower=jacob --> A: 0.478934
  (0) word.lower=resident --> I: 2.616002
  (0) +1:word.lower=host --> I: 2.616002
  (0) word.lower=host --> I: 1.831575
  (0) -1:word.lower=resident --> I: 1.831575
  (0) +1:word.lower=mikey --> I: 1.698953
  (0) word.lower=mikey --> A: 1.254088
  (0) -1:word.lower=host --> A: 1.124417
  (0) +1:word.lower=thunder --> A: 1.254088
  (0) word.lower=thunder --> A: 0.662694
  (0) -1:word.lower=mikey --> A: 0.662694
  (0) postag=VBZ --> I: 0.365042
  (0) word.lower=ag --> A: 0.043211
  (0) +1:word.lower=club --> A: 0.043211
  (0) word.lower=start --> I: 1.316546
  (0) +1:word.lower=making --> I: 1.316546
  (0) word.lower=making --> I: 0.365506
  (0) -1:word.lower=start --> I: 0.365506
  (0) +1:word.lower=sense --> I: 0.365506
  (0) word.lower=sense --> I: 0.189416
  (0) -1:word.lower=making --> I: 0.189416
  (0) word.lower=talking --> A: 0.437648
  (0) +1:word.lower=heads --> A: 0.437648
  (0) word.lower=tribute --> A: 0.440872
  (0) -1:word.lower=heads --> A: 0.440872
  (0) word.lower=summer --> I: 0.285781
  (0) -1:word.lower=1075 --> I: 0.285781
  (0) +1:word.lower=jam: --> I: 0.285781
  (0) word.lower=jam: --> I: 1.569681
  (0) -1:word.lower=summer --> I: 1.569681
  (0) +1:word.lower=dababy --> I: 1.569681
  (0) word.lower=dababy --> A: 1.712918
  (0) -1:word.lower=jam: --> A: 1.712918
  (0) +1:word.lower=amphitheatre --> I: 1.023718
  (0) word.lower=amphitheatre --> I: 1.620521
  (0) word.lower=and --> A: -0.142182
  (0) word.lower=and --> S: 4.427249
  (0) -1:word.lower=and --> A: 0.001352
  (0) +1:postag=NNPS --> A: 0.286022
  (0) postag=NNPS --> A: 1.107776
  (0) word.lower=halchak --> A: 0.276117
  (0) -1:word.lower=dave --> A: 0.262044
  (0) word.lower=dual --> I: 0.041205
  (0) +1:word.lower=venue --> I: 0.041205
  (0) word.lower=venue --> I: 0.005527
  (0) -1:word.lower=dual --> I: 0.005527
  (0) word.lower=juice --> A: 2.018462
  (0) +1:word.lower=ft. --> A: 0.541272
  (0) +1:word.lower=ft. --> I: -0.072156
  (0) word.lower=ft. --> I: 1.808126
  (0) word.lower=casey --> I: 2.070907
  (0) word.lower=cody --> I: 1.157053
  (0) word.lower=magic --> A: 0.231555
  (0) +1:word.lower=beans --> A: 0.231555
  (0) word.lower=beans --> A: 0.722086
  (0) -1:word.lower=magic --> A: 0.722086
  (0) +1:word.lower=+ --> A: 0.306433
  (0) +1:word.lower=+ --> I: -0.241572
  (0) word.lower=+ --> S: 6.289954
  (0) word.lower=patty --> I: 3.305151
  (0) -1:word.lower=+ --> A: -0.514870
  (0) -1:word.lower=+ --> I: 0.551174
  (0) word.lower=tucker --> I: 1.198293
  (0) word.lower=cycles --> A: 2.215931
  (0) word.lower=deville --> A: 0.741532
  (0) -1:word.lower=mega --> A: 0.741532
  (0) -1:word.lower=cortese --> I: 2.236615
  (0) +1:word.lower=dance --> A: 0.979446
  (0) word.lower=dance --> A: 0.221443
  (0) +1:word.lower=cards --> A: 0.221443
  (0) word.lower=*fri --> I: 3.974733
  (0) -1:word.lower=benton --> A: 2.481373
  (0) +1:word.lower=reason --> A: 2.481373
  (0) +1:word.lower=on --> I: 2.336610
  (0) -1:word.lower=on --> I: 0.978873
  (0) +1:word.lower=rocks --> A: 0.586207
  (0) +1:word.lower=rocks --> I: -0.705523
  (0) word.lower=rocks --> I: 2.099638
  (0) -1:word.lower=rocks --> I: 1.489410
  (0) word.lower=j.i.d --> A: 0.594782
  (0) -1:word.lower=lute --> A: 0.795667
  (0) +1:word.lower=omen --> A: 0.795667
  (0) +1:word.lower=red --> I: 2.798457
  (0) word.lower=red --> A: 0.979646
  (0) word.lower=red --> I: -0.950273
  (0) -1:word.lower=red --> I: 0.646519
  (0) word.lower=sam --> I: 1.339450
  (0) +1:word.lower=morrow --> I: 1.339450
  (0) word.lower=morrow --> I: 0.370991
  (0) -1:word.lower=sam --> I: 0.370991
  (0) word.lower=originals --> A: 0.215766
  (0) word.lower=tunes --> A: 0.415083
  (0) -1:word.lower=feat --> A: 0.415083
  (0) word.lower=unit --> A: 0.397675
  (0) -1:word.lower=st. --> A: 0.397675
  (0) word.lower=bbno$: --> I: 0.240206
  (0) +1:word.lower=eat --> I: 0.240206
  (0) -1:word.lower=ceo@business.net --> A: 0.298541
  (0) +1:word.lower=savagerealm --> A: 0.298541
  (0) word.lower=savagerealm --> A: 0.942453
  (0) word.lower=bass --> A: -0.075098
  (0) word.lower=bass --> I: 0.116824
  (0) +1:word.lower=invasion --> I: 1.280639
  (0) -1:word.lower=bass --> I: 1.973169
  (0) +1:word.lower=night --> I: 0.387119
  (0) -1:word.lower=night --> A: 0.517879
  (0) -1:word.lower=night --> I: -0.298207
  (0) +1:word.lower=ultrasloth --> I: 0.979332
  (0) word.lower=ultrasloth --> A: 1.969844
  (0) word.lower=grymetyme --> A: 2.640306
  (0) -1:word.lower=grymetyme --> I: 2.271751
  (0) word.lower=ferreck --> I: 1.341456
  (0) +1:word.lower=dawn --> I: 1.341456
  (0) word.lower=dawn --> I: 0.363885
  (0) -1:word.lower=ferreck --> I: 0.363885
  (0) word.lower=defected --> A: 2.227013
  (0) +1:word.lower=v --> I: 2.152744
  (0) word.lower=v --> I: 0.090944
  (0) +1:word.lower=neck --> I: 0.090944
  (0) word.lower=dirtybird --> A: 2.271694
  (0) -1:word.lower=dirtybird --> I: 2.662225
  (0) +1:word.lower=repopulate --> I: 0.056286
  (0) word.lower=mars --> A: 0.473058
  (0) -1:word.lower=repopulate --> A: 0.473058
  (0) word.lower=afterhours --> I: 0.014572
  (0) +1:word.lower=anonymous --> I: 0.014572
  (0) word.lower=anonymous --> I: 1.235052
  (0) -1:word.lower=afterhours --> I: 1.235052
  (0) -1:word.lower=liquid --> I: 1.474935
  (0) +1:word.lower=kill --> I: 1.474935
  (0) word.lower=of --> A: 0.512853
  (0) -1:word.lower=queens --> A: 0.512853
  (0) +1:word.lower=basscapital --> A: 0.512853
  (0) word.lower=vol. --> I: 1.281650
  (0) +1:word.lower=1 --> I: 1.281650
  (0) word.lower=weird --> A: 0.435242
  (0) +1:word.lower=waifu --> A: 0.435242
  (0) word.lower=kayyspray --> I: 7.229438
  (0) word.lower=ryan --> A: 1.263908
  (0) +1:word.lower=caraveo: --> A: 1.263908
  (0) word.lower=caraveo: --> I: 1.156901
  (0) -1:word.lower=ryan --> I: 1.156901
  (0) -1:word.lower=caraveo: --> I: 0.499821
  (0) +1:word.lower=northend --> I: 0.499821
  (0) word.lower=kendall --> A: 0.825650
  (0) +1:word.lower=street --> A: 0.825650
  (0) -1:word.lower=pixie --> A: 2.476628
  (0) word.lower=/// --> I: 1.194669
  (0) +1:word.lower=ghost --> I: 1.194669
  (0) word.lower=ghost --> A: 0.611799
  (0) -1:word.lower=/// --> A: 0.611799
  (0) +1:word.lower=town --> A: 0.611799
  (0) word.lower=town --> A: 0.101389
  (0) -1:word.lower=ghost --> A: 0.101389
  (0) +1:word.lower=drifters --> A: 0.101389
  (0) word.lower=drifters --> A: 0.828916
  (0) -1:word.lower=town --> A: 0.828916
  (0) +1:word.lower=pass --> I: 0.532912
  (0) word.lower=pass --> I: 0.091976
  (0) word.lower=invasion: --> I: 0.695410
  (0) -1:word.lower=invasion: --> A: 0.174328
  (0) word.lower=bill --> A: 0.032831
  (0) -1:word.lower=kll --> A: 0.032831
  (0) word.lower=more --> I: 2.012951
  (0) word.lower=sat --> I: 2.371615
  (0) -1:word.lower=ballyhoo! --> I: 1.461407
  (0) +1:word.lower=tunnel --> I: 1.461407
  (0) word.lower=tunnel --> A: 0.242922
  (0) +1:word.lower=vision --> A: 0.242922
  (0) word.lower=vision --> A: 0.000026
  (0) -1:word.lower=tunnel --> A: 0.000026
  (0) word.lower=space --> A: 0.685886
  (0) +1:word.lower=bacon --> A: 0.685886
  (0) word.lower=specific --> A: 0.848068
  (0) -1:word.lower=mr. --> A: 0.848068
  (0) -1:word.lower=specific --> I: 1.955639
  (0) word.lower=alo --> A: 1.219600
  (0) -1:word.lower=envy --> A: 1.219600
  (0) -1:word.lower=alo --> I: 0.663946
  (0) word.lower=patio: --> I: 0.980665
  (0) +1:word.lower=jon --> I: 0.980665
  (0) word.lower=jon --> A: 0.755093
  (0) -1:word.lower=patio: --> A: 0.755093
  (0) +1:word.lower=stickley --> A: 0.755093
  (0) -1:word.lower=cooney --> A: 0.705071
  (0) +1:word.lower=patrick --> A: 0.705071
  (0) word.lower=.atm --> I: 2.098403
  (0) word.lower=mau5trap --> A: 4.410345
  (0) word.lower=mahesh --> I: 0.929860
  (0) -1:word.lower=otis --> A: 0.774245
  (0) +1:word.lower=hyp3 --> A: 0.774245
  (0) word.lower=rocks: --> I: 1.391370
  (0) +1:word.lower=flatbush --> I: 1.391370
  (0) word.lower=flatbush --> A: 0.849397
  (0) -1:word.lower=rocks: --> A: 0.849397
  (0) +1:word.lower=zombies --> A: 0.849397
  (0) word.lower=zombies --> A: 1.801397
  (0) -1:word.lower=flatbush --> A: 1.801397
  (0) +1:word.lower=freek --> A: 1.801397
  (0) word.lower=freek --> I: 1.046267
  (0) -1:word.lower=zombies --> I: 1.046267
  (0) +1:word.lower=show --> I: 2.889199
  (0) word.lower=show --> I: 2.588714
  (0) -1:word.lower=freek --> I: 0.033884
  (0) +1:word.lower=with --> I: 0.033884
  (0) word.lower=with --> S: 1.643798
  (0) -1:word.lower=show --> S: 1.643798
  (0) +1:word.lower=earl --> S: 1.643798
  (0) word.lower=earl --> A: 0.194080
  (0) -1:word.lower=with --> A: 0.194080
  (0) +1:word.lower=sweatshirt --> A: 0.194080
  (0) word.lower=sweatshirt --> A: 0.130480
  (0) -1:word.lower=earl --> A: 0.130480
  (0) word.lower=2-day --> I: 1.339510
  (0) -1:word.lower=2-day --> I: 1.774211
  (0) +1:word.lower=pass: --> I: 0.603426
  (0) word.lower=pass: --> I: 1.183419
  (0) +1:word.lower=space --> I: 1.183419
  (0) -1:word.lower=pass: --> A: 0.482560
  (0) word.lower=rado --> A: 1.730544
  (0) word.lower=friday --> I: 1.491565
  (0) word.lower=saturday --> I: 1.445727
  (0) word.lower=$even --> A: 0.362502
  (0) -1:word.lower=forty --> A: 0.362502
  (0) word.lower=delight --> A: 0.348243
  (0) -1:word.lower=dreamers --> A: 0.348243
  (0) word.lower=ballroom --> I: 1.529154
  (0) -1:word.lower=recess --> A: 0.714832
  (0) +1:word.lower=friends --> A: 0.714832
  (0) word.lower=other --> I: 0.187137
  (0) +1:word.lower=side --> I: 0.187137
  (0) +1:word.lower=denver --> I: 2.933823
  (0) word.lower=denver --> I: 0.390214
  (0) +1:word.lower=pancakes --> I: 0.390214
  (0) word.lower=pancakes --> I: 0.942799
  (0) -1:word.lower=denver --> I: 0.942799
  (0) word.lower=booze --> I: 0.140645
  (0) +1:word.lower=art --> I: 0.140645
  (0) word.lower=boombox --> I: 0.991364
  (0) +1:word.lower=feat. --> I: 0.991364
  (0) word.lower=feat. --> I: 0.842659
  (0) -1:word.lower=boombox --> I: 0.842659
  (0) +1:word.lower=backbeat --> I: 0.842659
  (0) word.lower=backbeat --> A: 0.877646
  (0) -1:word.lower=feat. --> A: 0.877646
  (0) +1:word.lower=brass --> A: 0.877646
  (0) word.lower=mark --> I: 1.928233
  (0) +1:word.lower=farina --> I: 1.928233
  (0) word.lower=farina --> I: 1.914548
  (0) -1:word.lower=mark --> I: 1.914548
  (0) -1:word.lower=ethno --> A: 4.319118
  (0) -1:word.lower=ramakhandra --> A: 0.670695
  (0) +1:word.lower=adam --> A: 0.670695
  (0) -1:word.lower=conrank --> I: 1.487940
  (0) +1:word.lower=hydraulix --> I: 1.487940
  (0) -1:word.lower=man --> A: 0.642469
  (0) +1:word.lower=redman --> A: 0.642469
  (0) -1:word.lower=uglies --> I: 1.486953
  (0) +1:word.lower=tropidelic --> I: 1.486953
  (0) word.lower=codes --> I: 2.513052
  (0) +1:word.lower=/ --> A: 1.887045
  (0) word.lower=/ --> I: 3.056850
  (0) -1:word.lower=/ --> A: 2.870386
  (0) word.lower=lucati --> I: 1.015254
}

